-0.0680172846014293, -0.399910872081513, -0.205418294795097, 0.387590765346324, 0.237831671986541, 0.0325820687038064, -0.0775737348540296
0.024481119032721, -0.281532872016498, 0.353765013826702, -0.174037695828707, -0.225836114382259, 0.0249637409170017, 0.275670915721575
-0.00552750168078542, -0.240128671877981, -0.0024094355342728, 0.235233256007093, -0.198661689017066, 0.108920186603319, 0.236532113994934
-0.00494025531957987, 0.363378056853084, 0.153659441068653, -0.125081909025655, 0.302695987703771, -0.226604255079396, -0.354648052415684
-0.0322247560686495, 0.283645040449049, -0.378274397011182, 0.181550471252458, 0.104366903148093, 0.200836897768037, -0.0846662262142978
-0.0017793820515366, -0.212150878898044, 0.139762157224632, -0.301448338008468, 0.0615045339054287, 0.0414791329983711, 0.297663287604373
0.0111619984262956, 0.165939894965611, 0.371377678016617, -0.278000783135969, 0.310268528176432, 0.0559072021459656, 0.0609204521884732
0.0101106758156611, -0.35598504415429, 0.270614377176153, -0.212102209686954, -0.313435199425896, 0.220483224101766, -0.320273153806028
-0.00544735761590087, -0.332589315447771, 0.0204436069710472, 0.336255975317066, 0.35177539165254, -0.0531869691433815, 0.294680207405287
-0.0115866459985681, -0.0789408059440767, 0.290470461796066, 0.334081859166924, 0.0358714933826364, -0.349850759206085, -0.291993877431101

43.0603556297975, 42.7525662243931, 43.1908808088619, 42.6736659727782, 42.8249015315856, 42.7901151895242, 42.8102088532559, 42.7884883749693, 43.0092254047796, 43.1460886241511, 42.8431511398623
43.0170391647159, 42.7458044116777, 42.7151954249839, 43.1652128621425, 43.018980225973, 42.7980741962612, 42.9480780396876, 42.9616977805235, 42.7856825833426, 43.0553190129276, 43.1349608797829
42.976538761445, 43.062841750754, 42.921537203839, 43.1879992156437, 43.1873197433454, 43.2178934051258, 42.9019774023458, 42.8430321698799, 43.3182046717221, 43.2593192908494, 42.8801180812579
42.89367339196, 43.2470360154612, 42.9395480701531, 42.9838097697225, 42.781237612761, 43.2568480228485, 43.0687175294075, 42.8631243007535, 42.9733421166019, 43.0522012802052, 42.9837014165273
42.9313831027743, 43.2334131945157, 42.8761169560389, 42.7738497368684, 42.9098569896488, 43.0017666018605, 42.8908236635277, 42.9601942092845, 42.7963860103655, 43.1848059370943, 43.0495272664354
42.9824506811575, 43.1166357962575, 42.7669124676933, 42.9335312649565, 43.2872603820893, 42.8385309795381, 42.8529557412276, 43.16912204127, 42.9556633421846, 42.830939923352, 42.9485318657994
43.0241535667635, 42.796490975936, 42.8971024400604, 42.7676204271446, 42.8660571549468, 43.0656510374273, 43.1823157841588, 43.2754937510664, 43.0443662870501, 43.3113319165021, 42.7706224242049

-151.580768736631, -151.597494564016, -151.206133104506, -151.336402027266, -151.502545267067, -151.903440601102, -151.730288639646, -151.811567259704
-151.481907027633, -151.425110200242, -151.601528670919, -151.826625801944, -151.625831046106, -151.376149280001, -151.538940114826, -151.771128153985
-151.768658483922, -152.083977098704, -151.963757068752, -151.732039808979, -151.563905675408, -151.416287003278, -151.444747864161, -151.823205982292
-151.55088610994, -151.893175765768, -151.588703091524, -151.481391871692, -151.850692755085, -151.562357190006, -151.300778906462, -151.616239329259
-151.943416439379, -151.887538334261, -151.818472902806, -151.885661703607, -151.56687807561, -151.754124986855, -151.995798187026, -152.072983555739

