0, -0.412634581697752, -0.353035691388995, -0.31088506580142, -0.00131703666274817, 0.464098563941791
0, -0.200639722889562, 0.32707179236432, -0.398362724069063, -0.306235369675669, 0.109153653424506
0, 0.202723801035427, 0.193629235318026, 0.257309263740825, -0.299935826763088, -0.22764696132688
0, -0.174768949656332, -0.0158998870773056, -0.411498164627287, 0.556556778778062, 0.229260902736913
0, 0.0345635910298431, -0.377361072168405, -0.0630800013946423, 0.269014269197596, -0.357430787000002
0, 0.0246393517092493, -0.0819356250931189, -0.0810452971926213, 0.039080113054732, 0.168655060584715
0, -0.306492817727784, 0.422680779328349, -0.224011432654824, -0.136198049748494, 0.165910785245602
0, -0.311288828900475, 0.11323168604392, 0.294482345140061, -0.18437220602431, 0.286974673530413
0, 0.274626992318859, 0.25787434856501, -0.142421926421104, -0.000451953091256426, 0.516299092332731
0, -0.0720814047777815, 0.176414639150585, 0.301368231520003, -0.103835521911873, 0.321833674112526

0, 0.464300984347084, 0.0349680520881134, -0.0568849346616042, 0.495325615115158, -0.123861224229926, -0.0750817936203851, 0.10128760979132, 0.163403403806925, 0.0124098348318628, 0.23260551975906
0, 0.191552698228294, -0.0142250485491114, 0.279301596008936, -0.230160737961448, 0.171068256900963, -0.11577140627281, -0.125078442068031, -0.016139508157744, -0.216643196207775, 0.0900863599711918
0, -0.0218910114236215, 0.0860783735330216, -0.00148973290505158, 0.429866756855683, 0.137174178262159, 0.247547431589386, -0.136872684495009, -0.0549043005202544, 0.144575703557593, 0.40992108299744
0, 0.00355050099487558, 0.336871621840748, -0.155755543680671, 0.435700337624673, 0.242474888697925, 0.0314307776643597, 0.0147302962227783, -0.0162820571280054, 0.462933339135376, -0.109988901686935
0, 0.0535293207373892, -0.174839281401357, 0.201744471833052, -0.269729480739724, 0.223513447530413, 0.109685305781015, 0.346084325372013, 0.301081213652316, -0.179616371285509, 0.183684288147305
0, 0.244896939975636, -0.150431616939075, 0.246369057948776, 0.0579953498757757, 0.367303493870995, 0.384395639719333, 0.000745913775663881, -0.0303734033279624, 0.437183100117303, 0.207510808959909
0, 0.12719633234737, -0.104481589165281, -0.0425827328631806, 0.369248228410426, 0.401828965950796, 0.318906546776255, -0.170736015635856, 0.135168710238939, -0.0859093963019354, -0.0283440369201805

0, -0.116289232912211, -0.0597908665860053, 0.532477707151398, 0.341093742786445, 0.474314054911218, 0.557605330781513, -0.0327600542491442
0, 0.629522856548978, -0.0425276229160633, -0.0339350322344429, 0.59364385274082, 0.0765252373267394, 0.501885968108319, 0.164175302910065
0, -0.0875928648354275, 0.564251792144898, 0.114251034972357, -0.159775679331595, 0.649555677585425, -0.113409109508006, 0.441334551841903
0, -0.0601280788716099, 0.144967731832775, 0.556822364596375, 0.0543202442976696, 0.411163070089859, 0.205957358221518, -0.0195288534064199
0, 0.493210123163878, 0.11897956168308, 0.547088691687747, 0.211516747839953, 0.266451056611001, 0.297823266994589, 0.358928470947003

