Layer:
0, 0, -0.447213588933876, -0.447213588933876, 0, -0.894427177867752
0, 0, -1.34164076680163, -1.34164076680163, -0.894427177867752, -0.894427177867752
0, 0, -1.34164076680163, -0.447213588933876, 0, -0.894427177867752
0, -0.894427177867752, -0.894427177867752, 0, -1.34164076680163, -0.894427177867752
0, -1.34164076680163, -0.447213588933876, -1.34164076680163, 0, -0.447213588933876
0, -1.34164076680163, -1.34164076680163, -1.34164076680163, 0, -0.447213588933876
0, 0, -0.447213588933876, -1.34164076680163, -0.447213588933876, -1.34164076680163

Layer:
0, -0.755928966931406, -0.377964483465703, -1.13389345039711, 0, -0.755928966931406, -1.13389345039711, -0.755928966931406
0, 0, 0, -0.377964483465703, -1.13389345039711, -1.13389345039711, -1.13389345039711, -0.377964483465703
0, -0.377964483465703, -1.13389345039711, -0.377964483465703, -0.755928966931406, -1.13389345039711, -1.13389345039711, -0.755928966931406
0, 0, -1.13389345039711, 0, 0, -0.377964483465703, -0.377964483465703, -0.755928966931406
0, -1.13389345039711, -0.755928966931406, 0, -1.13389345039711, 0, -0.377964483465703, -1.13389345039711

